<?xml version="1.0"?>
<opencv_storage>
<cascade>
  <stageType>BOOST</stageType>
  <featureType>HAAR</featureType>
  <height>36</height>
  <width>36</width>
  <stageParams>
    <boostType>GAB</boostType>
    <minHitRate>9.9500000476837158e-01</minHitRate>
    <maxFalseAlarm>5.0000000000000000e-01</maxFalseAlarm>
    <weightTrimRate>9.4999998807907104e-01</weightTrimRate>
    <maxDepth>1</maxDepth>
    <maxWeakCount>100</maxWeakCount></stageParams>
  <featureParams>
    <maxCatCount>0</maxCatCount>
    <featSize>1</featSize>
    <mode>BASIC</mode></featureParams>
  <stageNum>20</stageNum>
  <stages>
    <!-- stage 0 -->
    <_>
      <maxWeakCount>3</maxWeakCount>
      <stageThreshold>-9.3072366714477539e-01</stageThreshold>
      <weakClassifiers>
        <_>
          <internalNodes>
            0 -1 105 5.7736611925065517e-03</internalNodes>
          <leafValues>
            -7.8748524188995361e-01 7.9310345649719238e-01</leafValues></_>
        <_>
          <internalNodes>
            0 -1 43 1.0127358138561249e-02</internalNodes>
          <leafValues>
            -7.4779486656188965e-01 6.6666233539581299e-01</leafValues></_>
        <_>
          <internalNodes>
            0 -1 121 1.7750514671206474e-03</internalNodes>
          <leafValues>
            -6.1899763345718384e-01 6.0455644130706787e-01</leafValues></_></weakClassifiers></_>
    <!-- stage 1 -->
    <_>
      <maxWeakCount>7</maxWeakCount>
      <stageThreshold>-1.8217229843139648e+00</stageThreshold>
      <weakClassifiers>
        <_>
          <internalNodes>
            0 -1 87 8.0176710616797209e-04</internalNodes>
          <leafValues>
            -6.6348451375961304e-01 6.9449079036712646e-01</leafValues></_>
        <_>
          <internalNodes>
            0 -1 168 -5.1126822654623538e-05</internalNodes>
          <leafValues>
            6.1891579627990723e-01 -6.8083256483078003e-01</leafValues></_>
        <_>
          <internalNodes>
            0 -1 167 -9.6202548593282700e-03</internalNodes>
          <leafValues>
            7.4025559425354004e-01 -4.0205818414688110e-01</leafValues></_>
        <_>
          <internalNodes>
            0 -1 111 -1.2693238386418670e-04</internalNodes>
          <leafValues>
            5.3410357236862183e-01 -5.1808232069015503e-01</leafValues></_>
        <_>
          <internalNodes>
            0 -1 97 -3.7710941396653652e-03</internalNodes>
          <leafValues>
            5.1766288280487061e-01 -4.5797482132911682e-01</leafValues></_>
        <_>
          <internalNodes>
            0 -1 165 -6.0427055359468795e-06</internalNodes>
          <leafValues>
            3.3156478404998779e-01 -6.5865510702133179e-01</leafValues></_>
        <_>
          <internalNodes>
            0 -1 22 -8.7840957567095757e-03</internalNodes>
          <leafValues>
            5.0717854499816895e-01 -4.1111409664154053e-01</leafValues></_></weakClassifiers></_>
    <!-- stage 2 -->
    <_>
      <maxWeakCount>9</maxWeakCount>
      <stageThreshold>-1.8859109878540039e+00</stageThreshold>
      <weakClassifiers>
        <_>
          <internalNodes>
            0 -1 84 -8.2067232578992844e-03</internalNodes>
          <leafValues>
            7.3298430442810059e-01 -6.3370788097381592e-01</leafValues></_>
        <_>
          <internalNodes>
            0 -1 38 1.6451127827167511e-02</internalNodes>
          <leafValues>
            -5.9739589691162109e-01 6.0233837366104126e-01</leafValues></_>
        <_>
          <internalNodes>
            0 -1 32 -9.8610026761889458e-03</internalNodes>
          <leafValues>
            6.8330860137939453e-01 -3.6662840843200684e-01</leafValues></_>
        <_>
          <internalNodes>
            0 -1 131 1.3434514403343201e-03</internalNodes>
          <leafValues>
            -5.7612550258636475e-01 4.2760086059570313e-01</leafValues></_>
        <_>
          <internalNodes>
            0 -1 189 -1.2811099877581000e-03</internalNodes>
          <leafValues>
            5.8047914505004883e-01 -3.8567224144935608e-01</leafValues></_>
        <_>
          <internalNodes>
            0 -1 198 -5.8868620544672012e-03</internalNodes>
          <leafValues>
            7.9927343130111694e-01 -2.2478778660297394e-01</leafValues></_>
        <_>
          <internalNodes>
            0 -1 25 3.5622797906398773e-02</internalNodes>
          <leafValues>
            -1.9148255884647369e-01 8.4482419490814209e-01</leafValues></_>
        <_>
          <internalNodes>
            0 -1 73 -7.6589197851717472e-04</internalNodes>
          <leafValues>
            3.3586075901985168e-01 -6.1698037385940552e-01</leafValues></_>
        <_>
          <internalNodes>
            0 -1 172 -1.7966430634260178e-02</internalNodes>
          <leafValues>
            7.8112089633941650e-01 -2.8227820992469788e-01</leafValues></_></weakClassifiers></_>
    <!-- stage 3 -->
    <_>
      <maxWeakCount>11</maxWeakCount>
      <stageThreshold>-1.4951164722442627e+00</stageThreshold>
      <weakClassifiers>
        <_>
          <internalNodes>
            0 -1 79 2.4885859340429306e-02</internalNodes>
          <leafValues>
            -5.5124056339263916e-01 7.0964831113815308e-01</leafValues></_>
        <_>
          <internalNodes>
            0 -1 70 4.6442765742540359e-03</internalNodes>
          <leafValues>
            -6.1155951023101807e-01 4.6841943264007568e-01</leafValues></_>
        <_>
          <internalNodes>
            0 -1 174 -5.3049037232995033e-03</internalNodes>
          <leafValues>
            5.7263821363449097e-01 -5.0064051151275635e-01</leafValues></_>
        <_>
          <internalNodes>
            0 -1 132 -1.7911209724843502e-03</internalNodes>
          <leafValues>
            3.9237019419670105e-01 -5.4381448030471802e-01</leafValues></_>
        <_>
          <internalNodes>
            0 -1 35 5.0286080688238144e-02</internalNodes>
          <leafValues>
            -2.1564000844955444e-01 9.0074664354324341e-01</leafValues></_>
        <_>
          <internalNodes>
            0 -1 5 2.8452418744564056e-02</internalNodes>
          <leafValues>
            -2.8266972303390503e-01 6.6752249002456665e-01</leafValues></_>
        <_>
          <internalNodes>
            0 -1 137 -1.2212370165798347e-05</internalNodes>
          <leafValues>
            3.2945147156715393e-01 -6.5717816352844238e-01</leafValues></_>
        <_>
          <internalNodes>
            0 -1 126 1.2607015669345856e-02</internalNodes>
          <leafValues>
            -2.6660251617431641e-01 7.0715516805648804e-01</leafValues></_>
        <_>
          <internalNodes>
            0 -1 10 1.0897816537180915e-04</internalNodes>
          <leafValues>
            2.1414601802825928e-01 -7.6398044824600220e-01</leafValues></_>
        <_>
          <internalNodes>
            0 -1 21 2.5248704478144646e-02</internalNodes>
          <leafValues>
            -2.5551164150238037e-01 7.5080019235610962e-01</leafValues></_>
        <_>
          <internalNodes>
            0 -1 95 8.9395639952272177e-04</internalNodes>
          <leafValues>
            2.3877276480197906e-01 -8.1836116313934326e-01</leafValues></_></weakClassifiers></_>
    <!-- stage 4 -->
    <_>
      <maxWeakCount>10</maxWeakCount>
      <stageThreshold>-1.5243178606033325e+00</stageThreshold>
      <weakClassifiers>
        <_>
          <internalNodes>
            0 -1 46 7.7383583411574364e-03</internalNodes>
          <leafValues>
            -3.3449780941009521e-01 7.3961842060089111e-01</leafValues></_>
        <_>
          <internalNodes>
            0 -1 64 -1.1100688949227333e-02</internalNodes>
          <leafValues>
            5.2570283412933350e-01 -5.1442170143127441e-01</leafValues></_>
        <_>
          <internalNodes>
            0 -1 161 -1.2641068547964096e-02</internalNodes>
          <leafValues>
            6.7069071531295776e-01 -3.5737481713294983e-01</leafValues></_>
        <_>
          <internalNodes>
            0 -1 133 2.4634292349219322e-03</internalNodes>
          <leafValues>
            -4.1528132557868958e-01 5.0543004274368286e-01</leafValues></_>
        <_>
          <internalNodes>
            0 -1 187 -2.7691689319908619e-04</internalNodes>
          <leafValues>
            3.1900730729103088e-01 -4.6646302938461304e-01</leafValues></_>
        <_>
          <internalNodes>
            0 -1 122 -4.2807916179299355e-04</internalNodes>
          <leafValues>
            3.1503421068191528e-01 -5.0232720375061035e-01</leafValues></_>
        <_>
          <internalNodes>
            0 -1 27 -1.1843936226796359e-04</internalNodes>
          <leafValues>
            -7.4186784029006958e-01 1.9838221371173859e-01</leafValues></_>
        <_>
          <internalNodes>
            0 -1 202 -5.5879812862258404e-05</internalNodes>
          <leafValues>
            -6.4672255516052246e-01 2.1375729143619537e-01</leafValues></_>
        <_>
          <internalNodes>
            0 -1 90 1.3123318785801530e-04</internalNodes>
          <leafValues>
            -4.4631710648536682e-01 3.1025493144989014e-01</leafValues></_>
        <_>
          <internalNodes>
            0 -1 60 -4.4990004971623421e-04</internalNodes>
          <leafValues>
            2.8342211246490479e-01 -5.1179981231689453e-01</leafValues></_></weakClassifiers></_>
    <!-- stage 5 -->
    <_>
      <maxWeakCount>10</maxWeakCount>
      <stageThreshold>-1.2499114274978638e+00</stageThreshold>
      <weakClassifiers>
        <_>
          <internalNodes>
            0 -1 59 1.3942971825599670e-02</internalNodes>
          <leafValues>
            -6.2500000000000000e-01 5.8099687099456787e-01</leafValues></_>
        <_>
          <internalNodes>
            0 -1 162 6.5563898533582687e-04</internalNodes>
          <leafValues>
            -6.6697192192077637e-01 4.3912205100059509e-01</leafValues></_>
        <_>
          <internalNodes>
            0 -1 103 -6.5860692411661148e-03</internalNodes>
          <leafValues>
            5.7096165418624878e-01 -4.3677830696105957e-01</leafValues></_>
        <_>
          <internalNodes>
            0 -1 81 1.4257684350013733e-02</internalNodes>
          <leafValues>
            -2.0231615006923676e-01 8.7493187189102173e-01</leafValues></_>
        <_>
          <internalNodes>
            0 -1 18 4.6668358147144318e-02</internalNodes>
          <leafValues>
            -2.4556940793991089e-01 8.2055872678756714e-01</leafValues></_>
        <_>
          <internalNodes>
            0 -1 55 8.4209279157221317e-04</internalNodes>
          <leafValues>
            -6.1850053071975708e-01 3.2176864147186279e-01</leafValues></_>
        <_>
          <internalNodes>
            0 -1 193 2.1045774337835610e-04</internalNodes>
          <leafValues>
            2.5367793440818787e-01 -6.6564142704010010e-01</leafValues></_>
        <_>
          <internalNodes>
            0 -1 42 -1.6420497559010983e-03</internalNodes>
          <leafValues>
            6.9380551576614380e-01 -2.6727819442749023e-01</leafValues></_>
        <_>
          <internalNodes>
            0 -1 201 2.4651200510561466e-04</internalNodes>
          <leafValues>
            2.7628663182258606e-01 -6.3311219215393066e-01</leafValues></_>
        <_>
          <internalNodes>
            0 -1 19 -1.5804544091224670e-04</internalNodes>
          <leafValues>
            -6.4540970325469971e-01 2.1641045808792114e-01</leafValues></_></weakClassifiers></_>
    <!-- stage 6 -->
    <_>
      <maxWeakCount>10</maxWeakCount>
      <stageThreshold>-1.2885966300964355e+00</stageThreshold>
      <weakClassifiers>
        <_>
          <internalNodes>
            0 -1 36 2.8644002974033356e-02</internalNodes>
          <leafValues>
            -4.5106384158134460e-01 6.3868612051010132e-01</leafValues></_>
        <_>
          <internalNodes>
            0 -1 65 3.0097286216914654e-03</internalNodes>
          <leafValues>
            -6.7359560728073120e-01 3.7216204404830933e-01</leafValues></_>
        <_>
          <internalNodes>
            0 -1 9 4.1795376688241959e-02</internalNodes>
          <leafValues>
            -3.3336541056632996e-01 6.3820868730545044e-01</leafValues></_>
        <_>
          <internalNodes>
            0 -1 177 -6.9041998358443379e-05</internalNodes>
          <leafValues>
            2.9689744114875793e-01 -6.8593096733093262e-01</leafValues></_>
        <_>
          <internalNodes>
            0 -1 124 -5.0775070121744648e-06</internalNodes>
          <leafValues>
            3.2202371954917908e-01 -5.9290128946304321e-01</leafValues></_>
        <_>
          <internalNodes>
            0 -1 57 -2.8622388839721680e-02</internalNodes>
          <leafValues>
            7.1068620681762695e-01 -3.1267210841178894e-01</leafValues></_>
        <_>
          <internalNodes>
            0 -1 147 -4.6650558942928910e-04</internalNodes>
          <leafValues>
            -5.9104943275451660e-01 3.7226900458335876e-01</leafValues></_>
        <_>
          <internalNodes>
            0 -1 12 4.1931092739105225e-02</internalNodes>
          <leafValues>
            -3.2669648528099060e-01 6.9259971380233765e-01</leafValues></_>
        <_>
          <internalNodes>
            0 -1 178 4.9094954738393426e-04</internalNodes>
          <leafValues>
            2.5985574722290039e-01 -7.4257147312164307e-01</leafValues></_>
        <_>
          <internalNodes>
            0 -1 169 -3.9779609069228172e-03</internalNodes>
          <leafValues>
            4.6299910545349121e-01 -3.9288228750228882e-01</leafValues></_></weakClassifiers></_>
    <!-- stage 7 -->
    <_>
      <maxWeakCount>8</maxWeakCount>
      <stageThreshold>-9.8481452465057373e-01</stageThreshold>
      <weakClassifiers>
        <_>
          <internalNodes>
            0 -1 31 -3.4835254773497581e-03</internalNodes>
          <leafValues>
            6.3992536067962646e-01 -4.2531120777130127e-01</leafValues></_>
        <_>
          <internalNodes>
            0 -1 170 -8.9369285851716995e-03</internalNodes>
          <leafValues>
            6.3642698526382446e-01 -3.7900969386100769e-01</leafValues></_>
        <_>
          <internalNodes>
            0 -1 148 5.3889176342636347e-04</internalNodes>
          <leafValues>
            -4.9292880296707153e-01 4.3588343262672424e-01</leafValues></_>
        <_>
          <internalNodes>
            0 -1 54 1.0607840958982706e-03</internalNodes>
          <leafValues>
            -4.7611504793167114e-01 3.8513633608818054e-01</leafValues></_>
        <_>
          <internalNodes>
            0 -1 1 -1.1796916078310460e-04</internalNodes>
          <leafValues>
            -6.8161469697952271e-01 2.1200364828109741e-01</leafValues></_>
        <_>
          <internalNodes>
            0 -1 141 5.9109739959239960e-04</internalNodes>
          <leafValues>
            -6.8566888570785522e-01 2.5705352425575256e-01</leafValues></_>
        <_>
          <internalNodes>
            0 -1 71 5.6311516091227531e-03</internalNodes>
          <leafValues>
            2.0655022561550140e-01 -7.4452239274978638e-01</leafValues></_>
        <_>
          <internalNodes>
            0 -1 98 -2.9270024970173836e-03</internalNodes>
          <leafValues>
            -8.1510764360427856e-01 1.6757017374038696e-01</leafValues></_></weakClassifiers></_>
    <!-- stage 8 -->
    <_>
      <maxWeakCount>12</maxWeakCount>
      <stageThreshold>-1.2227942943572998e+00</stageThreshold>
      <weakClassifiers>
        <_>
          <internalNodes>
            0 -1 37 2.3352060467004776e-02</internalNodes>
          <leafValues>
            -2.4137930572032928e-01 7.3130542039871216e-01</leafValues></_>
        <_>
          <internalNodes>
            0 -1 140 2.6371786370873451e-03</internalNodes>
          <leafValues>
            -6.7288810014724731e-01 3.1368452310562134e-01</leafValues></_>
        <_>
          <internalNodes>
            0 -1 159 -3.7864200770854950e-02</internalNodes>
          <leafValues>
            6.3558334112167358e-01 -2.7094256877899170e-01</leafValues></_>
        <_>
          <internalNodes>
            0 -1 138 5.8011285727843642e-04</internalNodes>
          <leafValues>
            -6.5495628118515015e-01 2.4413168430328369e-01</leafValues></_>
        <_>
          <internalNodes>
            0 -1 145 1.1728405952453613e-03</internalNodes>
          <leafValues>
            -7.6382112503051758e-01 2.2245398163795471e-01</leafValues></_>
        <_>
          <internalNodes>
            0 -1 44 2.5809455662965775e-02</internalNodes>
          <leafValues>
            -2.1854154765605927e-01 8.4876805543899536e-01</leafValues></_>
        <_>
          <internalNodes>
            0 -1 93 -1.9662820704979822e-05</internalNodes>
          <leafValues>
            3.3581644296646118e-01 -4.4469282031059265e-01</leafValues></_>
        <_>
          <internalNodes>
            0 -1 48 4.2944144457578659e-02</internalNodes>
          <leafValues>
            -1.8768256902694702e-01 8.2955747842788696e-01</leafValues></_>
        <_>
          <internalNodes>
            0 -1 30 -1.3823584886267781e-03</internalNodes>
          <leafValues>
            3.1296417117118835e-01 -4.6080386638641357e-01</leafValues></_>
        <_>
          <internalNodes>
            0 -1 99 2.7300158399157226e-04</internalNodes>
          <leafValues>
            -6.7241948843002319e-01 1.9614894688129425e-01</leafValues></_>
        <_>
          <internalNodes>
            0 -1 196 -1.7290480434894562e-02</internalNodes>
          <leafValues>
            6.5107434988021851e-01 -2.3223100602626801e-01</leafValues></_>
        <_>
          <internalNodes>
            0 -1 88 -1.1717178858816624e-03</internalNodes>
          <leafValues>
            -7.9812914133071899e-01 2.0086501538753510e-01</leafValues></_></weakClassifiers></_>
    <!-- stage 9 -->
    <_>
      <maxWeakCount>7</maxWeakCount>
      <stageThreshold>-9.1758865118026733e-01</stageThreshold>
      <weakClassifiers>
        <_>
          <internalNodes>
            0 -1 96 2.0958181470632553e-02</internalNodes>
          <leafValues>
            -2.5320512056350708e-01 7.5126904249191284e-01</leafValues></_>
        <_>
          <internalNodes>
            0 -1 0 -5.4083226132206619e-05</internalNodes>
          <leafValues>
            -7.2455805540084839e-01 3.1210196018218994e-01</leafValues></_>
        <_>
          <internalNodes>
            0 -1 197 6.6047919972334057e-05</internalNodes>
          <leafValues>
            2.4182964861392975e-01 -6.9522279500961304e-01</leafValues></_>
        <_>
          <internalNodes>
            0 -1 101 7.9467060277238488e-04</internalNodes>
          <leafValues>
            -7.5712543725967407e-01 2.2781820595264435e-01</leafValues></_>
        <_>
          <internalNodes>
            0 -1 128 2.1563563495874405e-04</internalNodes>
          <leafValues>
            1.5455144643783569e-01 -8.5807728767395020e-01</leafValues></_>
        <_>
          <internalNodes>
            0 -1 129 -1.8503922910895199e-04</internalNodes>
          <leafValues>
            -7.3753631114959717e-01 2.0936270058155060e-01</leafValues></_>
        <_>
          <internalNodes>
            0 -1 130 3.7561678327620029e-03</internalNodes>
          <leafValues>
            1.7233610153198242e-01 -8.3096259832382202e-01</leafValues></_></weakClassifiers></_>
    <!-- stage 10 -->
    <_>
      <maxWeakCount>10</maxWeakCount>
      <stageThreshold>-1.4177125692367554e+00</stageThreshold>
      <weakClassifiers>
        <_>
          <internalNodes>
            0 -1 171 -8.7938373908400536e-03</internalNodes>
          <leafValues>
            5.3631287813186646e-01 -3.1185030937194824e-01</leafValues></_>
        <_>
          <internalNodes>
            0 -1 123 9.2441466404125094e-04</internalNodes>
          <leafValues>
            -4.0544086694717407e-01 4.3658265471458435e-01</leafValues></_>
        <_>
          <internalNodes>
            0 -1 45 5.8979410678148270e-03</internalNodes>
          <leafValues>
            -3.4085199236869812e-01 5.1716148853302002e-01</leafValues></_>
        <_>
          <internalNodes>
            0 -1 176 -1.3924363884143531e-05</internalNodes>
          <leafValues>
            3.0116280913352966e-01 -6.2060308456420898e-01</leafValues></_>
        <_>
          <internalNodes>
            0 -1 6 4.2728036642074585e-01</internalNodes>
          <leafValues>
            -2.6736357808113098e-01 6.5810608863830566e-01</leafValues></_>
        <_>
          <internalNodes>
            0 -1 74 -6.1096427962183952e-03</internalNodes>
          <leafValues>
            -8.2774949073791504e-01 2.3030567169189453e-01</leafValues></_>
        <_>
          <internalNodes>
            0 -1 40 -1.9989544525742531e-03</internalNodes>
          <leafValues>
            4.2303061485290527e-01 -3.5251754522323608e-01</leafValues></_>
        <_>
          <internalNodes>
            0 -1 106 -3.9814487099647522e-03</internalNodes>
          <leafValues>
            2.5630635023117065e-01 -6.0831731557846069e-01</leafValues></_>
        <_>
          <internalNodes>
            0 -1 200 -5.8423262089490891e-05</internalNodes>
          <leafValues>
            -6.9364386796951294e-01 2.2461043298244476e-01</leafValues></_>
        <_>
          <internalNodes>
            0 -1 68 8.9358389377593994e-03</internalNodes>
          <leafValues>
            1.1255013942718506e-01 -8.5206133127212524e-01</leafValues></_></weakClassifiers></_>
    <!-- stage 11 -->
    <_>
      <maxWeakCount>11</maxWeakCount>
      <stageThreshold>-1.2522746324539185e+00</stageThreshold>
      <weakClassifiers>
        <_>
          <internalNodes>
            0 -1 72 4.7309114597737789e-04</internalNodes>
          <leafValues>
            3.4947237372398376e-01 -6.7529410123825073e-01</leafValues></_>
        <_>
          <internalNodes>
            0 -1 80 1.1695124208927155e-02</internalNodes>
          <leafValues>
            -3.4023457765579224e-01 5.4377830028533936e-01</leafValues></_>
        <_>
          <internalNodes>
            0 -1 155 -5.1850988529622555e-04</internalNodes>
          <leafValues>
            3.5168534517288208e-01 -5.3128290176391602e-01</leafValues></_>
        <_>
          <internalNodes>
            0 -1 151 -9.4147189884097315e-06</internalNodes>
          <leafValues>
            2.3101040720939636e-01 -6.9153612852096558e-01</leafValues></_>
        <_>
          <internalNodes>
            0 -1 118 -3.9485543966293335e-03</internalNodes>
          <leafValues>
            -7.2700726985931396e-01 1.6084156930446625e-01</leafValues></_>
        <_>
          <internalNodes>
            0 -1 188 -2.3045216221362352e-04</internalNodes>
          <leafValues>
            2.9923525452613831e-01 -4.9355068802833557e-01</leafValues></_>
        <_>
          <internalNodes>
            0 -1 3 -1.6914444859139621e-04</internalNodes>
          <leafValues>
            -6.0196995735168457e-01 2.3404683172702789e-01</leafValues></_>
        <_>
          <internalNodes>
            0 -1 11 7.3460039857309312e-05</internalNodes>
          <leafValues>
            2.1357569098472595e-01 -6.3488548994064331e-01</leafValues></_>
        <_>
          <internalNodes>
            0 -1 85 -1.1251644464209676e-03</internalNodes>
          <leafValues>
            -7.7233839035034180e-01 1.9090548157691956e-01</leafValues></_>
        <_>
          <internalNodes>
            0 -1 91 1.3406600337475538e-03</internalNodes>
          <leafValues>
            -4.3165916204452515e-01 3.1908687949180603e-01</leafValues></_>
        <_>
          <internalNodes>
            0 -1 24 1.0291579383192584e-04</internalNodes>
          <leafValues>
            2.0192658901214600e-01 -6.8265879154205322e-01</leafValues></_></weakClassifiers></_>
    <!-- stage 12 -->
    <_>
      <maxWeakCount>11</maxWeakCount>
      <stageThreshold>-1.2662472724914551e+00</stageThreshold>
      <weakClassifiers>
        <_>
          <internalNodes>
            0 -1 186 -5.0775070121744648e-06</internalNodes>
          <leafValues>
            4.5007452368736267e-01 -4.7262248396873474e-01</leafValues></_>
        <_>
          <internalNodes>
            0 -1 127 -2.2743344306945801e-02</internalNodes>
          <leafValues>
            4.7677704691886902e-01 -3.3331966400146484e-01</leafValues></_>
        <_>
          <internalNodes>
            0 -1 120 -1.2027409393340349e-03</internalNodes>
          <leafValues>
            5.5832606554031372e-01 -2.4701641499996185e-01</leafValues></_>
        <_>
          <internalNodes>
            0 -1 15 8.3658516407012939e-02</internalNodes>
          <leafValues>
            -2.2060486674308777e-01 7.2506093978881836e-01</leafValues></_>
        <_>
          <internalNodes>
            0 -1 109 1.0640989057719707e-03</internalNodes>
          <leafValues>
            -5.2782046794891357e-01 2.5832918286323547e-01</leafValues></_>
        <_>
          <internalNodes>
            0 -1 163 1.0674722943804227e-05</internalNodes>
          <leafValues>
            -6.1719733476638794e-01 2.2900632023811340e-01</leafValues></_>
        <_>
          <internalNodes>
            0 -1 166 -5.7359486818313599e-03</internalNodes>
          <leafValues>
            3.5329422354698181e-01 -3.9186012744903564e-01</leafValues></_>
        <_>
          <internalNodes>
            0 -1 17 2.9515493661165237e-02</internalNodes>
          <leafValues>
            -2.2409474849700928e-01 5.7762360572814941e-01</leafValues></_>
        <_>
          <internalNodes>
            0 -1 82 5.2541113291226793e-06</internalNodes>
          <leafValues>
            -5.2526575326919556e-01 2.6760366559028625e-01</leafValues></_>
        <_>
          <internalNodes>
            0 -1 114 2.5059672771021724e-04</internalNodes>
          <leafValues>
            1.3815751671791077e-01 -8.1584876775741577e-01</leafValues></_>
        <_>
          <internalNodes>
            0 -1 39 -3.1740032136440277e-03</internalNodes>
          <leafValues>
            5.1240867376327515e-01 -2.6982560753822327e-01</leafValues></_></weakClassifiers></_>
    <!-- stage 13 -->
    <_>
      <maxWeakCount>11</maxWeakCount>
      <stageThreshold>-8.7454253435134888e-01</stageThreshold>
      <weakClassifiers>
        <_>
          <internalNodes>
            0 -1 62 2.8384972829371691e-03</internalNodes>
          <leafValues>
            -5.3513514995574951e-01 3.8690075278282166e-01</leafValues></_>
        <_>
          <internalNodes>
            0 -1 156 -1.1982232535956427e-05</internalNodes>
          <leafValues>
            2.8411573171615601e-01 -5.9072136878967285e-01</leafValues></_>
        <_>
          <internalNodes>
            0 -1 173 5.3298578131943941e-04</internalNodes>
          <leafValues>
            -4.3761932849884033e-01 3.2670909166336060e-01</leafValues></_>
        <_>
          <internalNodes>
            0 -1 28 -1.7054414376616478e-02</internalNodes>
          <leafValues>
            4.3537691235542297e-01 -3.0397167801856995e-01</leafValues></_>
        <_>
          <internalNodes>
            0 -1 115 -6.9560715928673744e-04</internalNodes>
          <leafValues>
            -7.6185333728790283e-01 1.7419016361236572e-01</leafValues></_>
        <_>
          <internalNodes>
            0 -1 112 -4.8464047722518444e-04</internalNodes>
          <leafValues>
            2.9644641280174255e-01 -4.6978494524955750e-01</leafValues></_>
        <_>
          <internalNodes>
            0 -1 13 -2.5626353453844786e-04</internalNodes>
          <leafValues>
            -5.9667128324508667e-01 1.7385557293891907e-01</leafValues></_>
        <_>
          <internalNodes>
            0 -1 50 -5.4385222028940916e-04</internalNodes>
          <leafValues>
            2.1581609547138214e-01 -5.8308786153793335e-01</leafValues></_>
        <_>
          <internalNodes>
            0 -1 117 3.5039479844272137e-03</internalNodes>
          <leafValues>
            2.0238369703292847e-01 -6.6892486810684204e-01</leafValues></_>
        <_>
          <internalNodes>
            0 -1 26 1.4377579791471362e-03</internalNodes>
          <leafValues>
            -6.1401873826980591e-01 2.0893596112728119e-01</leafValues></_>
        <_>
          <internalNodes>
            0 -1 195 -1.7657551914453506e-02</internalNodes>
          <leafValues>
            6.0865652561187744e-01 -2.2009667754173279e-01</leafValues></_></weakClassifiers></_>
    <!-- stage 14 -->
    <_>
      <maxWeakCount>13</maxWeakCount>
      <stageThreshold>-1.1056483983993530e+00</stageThreshold>
      <weakClassifiers>
        <_>
          <internalNodes>
            0 -1 150 -1.0612783022224903e-02</internalNodes>
          <leafValues>
            5.1080548763275146e-01 -2.3968565464019775e-01</leafValues></_>
        <_>
          <internalNodes>
            0 -1 67 5.5784371397749055e-06</internalNodes>
          <leafValues>
            -5.5512213706970215e-01 2.6624608039855957e-01</leafValues></_>
        <_>
          <internalNodes>
            0 -1 153 6.7604519244923722e-06</internalNodes>
          <leafValues>
            -5.6775277853012085e-01 2.2510704398155212e-01</leafValues></_>
        <_>
          <internalNodes>
            0 -1 29 -1.3693755492568016e-02</internalNodes>
          <leafValues>
            4.0010759234428406e-01 -3.1928452849388123e-01</leafValues></_>
        <_>
          <internalNodes>
            0 -1 20 -1.4506527804769576e-04</internalNodes>
          <leafValues>
            -6.4640069007873535e-01 1.8290947377681732e-01</leafValues></_>
        <_>
          <internalNodes>
            0 -1 136 3.0445196898654103e-04</internalNodes>
          <leafValues>
            1.2923283874988556e-01 -7.7030277252197266e-01</leafValues></_>
        <_>
          <internalNodes>
            0 -1 199 -1.1480098590254784e-02</internalNodes>
          <leafValues>
            8.0360269546508789e-01 -2.1221822500228882e-01</leafValues></_>
        <_>
          <internalNodes>
            0 -1 183 -7.6100361184217036e-05</internalNodes>
          <leafValues>
            3.1894177198410034e-01 -4.7477275133132935e-01</leafValues></_>
        <_>
          <internalNodes>
            0 -1 41 8.3145778626203537e-03</internalNodes>
          <leafValues>
            1.6326352953910828e-01 -6.8602508306503296e-01</leafValues></_>
        <_>
          <internalNodes>
            0 -1 144 -3.7978175096213818e-03</internalNodes>
          <leafValues>
            2.2541515529155731e-01 -5.1062804460525513e-01</leafValues></_>
        <_>
          <internalNodes>
            0 -1 125 4.1393731953576207e-04</internalNodes>
          <leafValues>
            -4.7038370370864868e-01 2.5026702880859375e-01</leafValues></_>
        <_>
          <internalNodes>
            0 -1 158 4.0478505194187164e-02</internalNodes>
          <leafValues>
            -1.6356515884399414e-01 8.0419456958770752e-01</leafValues></_>
        <_>
          <internalNodes>
            0 -1 23 1.0618741810321808e-01</internalNodes>
          <leafValues>
            -2.8927460312843323e-01 4.7918230295181274e-01</leafValues></_></weakClassifiers></_>
    <!-- stage 15 -->
    <_>
      <maxWeakCount>11</maxWeakCount>
      <stageThreshold>-1.0487340688705444e+00</stageThreshold>
      <weakClassifiers>
        <_>
          <internalNodes>
            0 -1 149 -1.0163411498069763e-02</internalNodes>
          <leafValues>
            5.1771652698516846e-01 -2.4509803950786591e-01</leafValues></_>
        <_>
          <internalNodes>
            0 -1 52 -2.0133745856583118e-03</internalNodes>
          <leafValues>
            2.1101948618888855e-01 -6.8201869726181030e-01</leafValues></_>
        <_>
          <internalNodes>
            0 -1 89 -5.5181585594255012e-06</internalNodes>
          <leafValues>
            2.8234222531318665e-01 -5.0150120258331299e-01</leafValues></_>
        <_>
          <internalNodes>
            0 -1 76 4.3726237490773201e-03</internalNodes>
          <leafValues>
            1.3008166849613190e-01 -7.5997978448867798e-01</leafValues></_>
        <_>
          <internalNodes>
            0 -1 152 -6.8198722146917135e-05</internalNodes>
          <leafValues>
            2.2940953075885773e-01 -5.4471927881240845e-01</leafValues></_>
        <_>
          <internalNodes>
            0 -1 7 6.0201901942491531e-03</internalNodes>
          <leafValues>
            -1.9728182256221771e-01 7.3358428478240967e-01</leafValues></_>
        <_>
          <internalNodes>
            0 -1 142 -8.2493550144135952e-04</internalNodes>
          <leafValues>
            -7.8184485435485840e-01 1.7340964078903198e-01</leafValues></_>
        <_>
          <internalNodes>
            0 -1 14 5.7481433032080531e-04</internalNodes>
          <leafValues>
            2.0025509595870972e-01 -5.6820720434188843e-01</leafValues></_>
        <_>
          <internalNodes>
            0 -1 164 5.4342811927199364e-04</internalNodes>
          <leafValues>
            1.8457017838954926e-01 -6.9342708587646484e-01</leafValues></_>
        <_>
          <internalNodes>
            0 -1 66 -8.4797684103250504e-03</internalNodes>
          <leafValues>
            -6.8615800142288208e-01 1.4276944100856781e-01</leafValues></_>
        <_>
          <internalNodes>
            0 -1 77 5.9488029364729300e-06</internalNodes>
          <leafValues>
            -4.5230168104171753e-01 2.8140568733215332e-01</leafValues></_></weakClassifiers></_>
    <!-- stage 16 -->
    <_>
      <maxWeakCount>11</maxWeakCount>
      <stageThreshold>-9.9405395984649658e-01</stageThreshold>
      <weakClassifiers>
        <_>
          <internalNodes>
            0 -1 92 -5.7298007050121669e-06</internalNodes>
          <leafValues>
            3.7714284658432007e-01 -3.9622640609741211e-01</leafValues></_>
        <_>
          <internalNodes>
            0 -1 58 -2.2183645516633987e-02</internalNodes>
          <leafValues>
            3.8660347461700439e-01 -3.4460550546646118e-01</leafValues></_>
        <_>
          <internalNodes>
            0 -1 2 -6.9404355599544942e-05</internalNodes>
          <leafValues>
            -5.6768494844436646e-01 2.2459861636161804e-01</leafValues></_>
        <_>
          <internalNodes>
            0 -1 182 -1.1195363185834140e-05</internalNodes>
          <leafValues>
            2.0314081013202667e-01 -5.7627028226852417e-01</leafValues></_>
        <_>
          <internalNodes>
            0 -1 108 -2.0670183002948761e-03</internalNodes>
          <leafValues>
            6.2277626991271973e-01 -2.1146540343761444e-01</leafValues></_>
        <_>
          <internalNodes>
            0 -1 119 -4.7780601307749748e-03</internalNodes>
          <leafValues>
            -8.1780296564102173e-01 1.6188566386699677e-01</leafValues></_>
        <_>
          <internalNodes>
            0 -1 63 8.5336919873952866e-03</internalNodes>
          <leafValues>
            1.7616252601146698e-01 -6.2438446283340454e-01</leafValues></_>
        <_>
          <internalNodes>
            0 -1 185 -5.7765737437875941e-06</internalNodes>
          <leafValues>
            1.9935019314289093e-01 -4.9581673741340637e-01</leafValues></_>
        <_>
          <internalNodes>
            0 -1 194 -4.7770536184543744e-05</internalNodes>
          <leafValues>
            -5.3422594070434570e-01 2.1240498125553131e-01</leafValues></_>
        <_>
          <internalNodes>
            0 -1 139 1.9131964654661715e-04</internalNodes>
          <leafValues>
            -5.1333642005920410e-01 1.9622261822223663e-01</leafValues></_>
        <_>
          <internalNodes>
            0 -1 134 -9.8499818705022335e-04</internalNodes>
          <leafValues>
            -8.5119640827178955e-01 1.1604776233434677e-01</leafValues></_></weakClassifiers></_>
    <!-- stage 17 -->
    <_>
      <maxWeakCount>13</maxWeakCount>
      <stageThreshold>-9.2643779516220093e-01</stageThreshold>
      <weakClassifiers>
        <_>
          <internalNodes>
            0 -1 47 -5.1646167412400246e-04</internalNodes>
          <leafValues>
            3.3037412166595459e-01 -5.3376907110214233e-01</leafValues></_>
        <_>
          <internalNodes>
            0 -1 190 -2.6339692994952202e-03</internalNodes>
          <leafValues>
            4.9778252840042114e-01 -2.8495451807975769e-01</leafValues></_>
        <_>
          <internalNodes>
            0 -1 197 3.6356439522933215e-05</internalNodes>
          <leafValues>
            2.1208572387695313e-01 -6.4235907793045044e-01</leafValues></_>
        <_>
          <internalNodes>
            0 -1 56 8.3187871496193111e-05</internalNodes>
          <leafValues>
            -4.7357195615768433e-01 2.3848652839660645e-01</leafValues></_>
        <_>
          <internalNodes>
            0 -1 110 -5.5110305547714233e-03</internalNodes>
          <leafValues>
            2.6386114954948425e-01 -4.1623494029045105e-01</leafValues></_>
        <_>
          <internalNodes>
            0 -1 83 -1.1655644048005342e-03</internalNodes>
          <leafValues>
            -6.6741245985031128e-01 1.6337265074253082e-01</leafValues></_>
        <_>
          <internalNodes>
            0 -1 51 3.6445506848394871e-03</internalNodes>
          <leafValues>
            1.2470296025276184e-01 -6.4618372917175293e-01</leafValues></_>
        <_>
          <internalNodes>
            0 -1 146 1.7172952648252249e-03</internalNodes>
          <leafValues>
            -7.7549642324447632e-01 1.4233984053134918e-01</leafValues></_>
        <_>
          <internalNodes>
            0 -1 104 -2.4679075926542282e-02</internalNodes>
          <leafValues>
            3.3456128835678101e-01 -3.2596814632415771e-01</leafValues></_>
        <_>
          <internalNodes>
            0 -1 179 -6.5015087602660060e-04</internalNodes>
          <leafValues>
            -5.6818592548370361e-01 1.9802065193653107e-01</leafValues></_>
        <_>
          <internalNodes>
            0 -1 180 6.1941228341311216e-04</internalNodes>
          <leafValues>
            1.5120172500610352e-01 -7.0798522233963013e-01</leafValues></_>
        <_>
          <internalNodes>
            0 -1 10 8.7389264081139117e-05</internalNodes>
          <leafValues>
            1.3875333964824677e-01 -6.9379419088363647e-01</leafValues></_>
        <_>
          <internalNodes>
            0 -1 34 -1.2052631063852459e-04</internalNodes>
          <leafValues>
            -5.6241792440414429e-01 1.9269382953643799e-01</leafValues></_></weakClassifiers></_>
    <!-- stage 18 -->
    <_>
      <maxWeakCount>14</maxWeakCount>
      <stageThreshold>-1.1690188646316528e+00</stageThreshold>
      <weakClassifiers>
        <_>
          <internalNodes>
            0 -1 33 -2.8080616611987352e-03</internalNodes>
          <leafValues>
            5.0000000000000000e-01 -2.0265151560306549e-01</leafValues></_>
        <_>
          <internalNodes>
            0 -1 94 -2.2139670327305794e-03</internalNodes>
          <leafValues>
            3.8601675629615784e-01 -3.2686272263526917e-01</leafValues></_>
        <_>
          <internalNodes>
            0 -1 175 -1.9376013427972794e-02</internalNodes>
          <leafValues>
            4.6402439475059509e-01 -2.4151886999607086e-01</leafValues></_>
        <_>
          <internalNodes>
            0 -1 143 -1.1208886280655861e-03</internalNodes>
          <leafValues>
            1.9803905487060547e-01 -5.4210931062698364e-01</leafValues></_>
        <_>
          <internalNodes>
            0 -1 78 1.0497609036974609e-04</internalNodes>
          <leafValues>
            1.7165952920913696e-01 -6.2840974330902100e-01</leafValues></_>
        <_>
          <internalNodes>
            0 -1 78 -5.8620942581910640e-05</internalNodes>
          <leafValues>
            -5.4879707098007202e-01 2.6758515834808350e-01</leafValues></_>
        <_>
          <internalNodes>
            0 -1 86 -1.4263411285355687e-03</internalNodes>
          <leafValues>
            2.6863649487495422e-01 -3.8622319698333740e-01</leafValues></_>
        <_>
          <internalNodes>
            0 -1 154 -4.5152883976697922e-03</internalNodes>
          <leafValues>
            -8.7516003847122192e-01 9.1112159192562103e-02</leafValues></_>
        <_>
          <internalNodes>
            0 -1 181 -5.5744612836861052e-06</internalNodes>
          <leafValues>
            2.1654509007930756e-01 -4.5143106579780579e-01</leafValues></_>
        <_>
          <internalNodes>
            0 -1 160 -9.7999302670359612e-04</internalNodes>
          <leafValues>
            2.6784798502922058e-01 -3.7645339965820313e-01</leafValues></_>
        <_>
          <internalNodes>
            0 -1 69 5.2451738156378269e-03</internalNodes>
          <leafValues>
            1.6931955516338348e-01 -6.6580384969711304e-01</leafValues></_>
        <_>
          <internalNodes>
            0 -1 107 6.2747113406658173e-04</internalNodes>
          <leafValues>
            1.5137556195259094e-01 -6.6010504961013794e-01</leafValues></_>
        <_>
          <internalNodes>
            0 -1 113 2.2118695778772235e-04</internalNodes>
          <leafValues>
            -4.1100075840950012e-01 2.6578271389007568e-01</leafValues></_>
        <_>
          <internalNodes>
            0 -1 8 2.5150261353701353e-04</internalNodes>
          <leafValues>
            1.7803159356117249e-01 -5.6687998771667480e-01</leafValues></_></weakClassifiers></_>
    <!-- stage 19 -->
    <_>
      <maxWeakCount>15</maxWeakCount>
      <stageThreshold>-9.8148345947265625e-01</stageThreshold>
      <weakClassifiers>
        <_>
          <internalNodes>
            0 -1 49 2.0308445673435926e-03</internalNodes>
          <leafValues>
            -2.2153209149837494e-01 4.5794391632080078e-01</leafValues></_>
        <_>
          <internalNodes>
            0 -1 4 2.8516978025436401e-02</internalNodes>
          <leafValues>
            -2.2599184513092041e-01 5.3070694208145142e-01</leafValues></_>
        <_>
          <internalNodes>
            0 -1 157 3.7671459722332656e-04</internalNodes>
          <leafValues>
            -3.7780407071113586e-01 2.9978433251380920e-01</leafValues></_>
        <_>
          <internalNodes>
            0 -1 116 5.5735616479068995e-04</internalNodes>
          <leafValues>
            -2.9541304707527161e-01 3.5214611887931824e-01</leafValues></_>
        <_>
          <internalNodes>
            0 -1 53 -1.3830775395035744e-02</internalNodes>
          <leafValues>
            -7.3519092798233032e-01 1.6570939123630524e-01</leafValues></_>
        <_>
          <internalNodes>
            0 -1 135 1.2540127499960363e-05</internalNodes>
          <leafValues>
            -5.6159800291061401e-01 2.0102815330028534e-01</leafValues></_>
        <_>
          <internalNodes>
            0 -1 192 2.1227553952485323e-03</internalNodes>
          <leafValues>
            1.5852220356464386e-01 -5.7542711496353149e-01</leafValues></_>
        <_>
          <internalNodes>
            0 -1 102 -5.7181773627235088e-06</internalNodes>
          <leafValues>
            1.9625021517276764e-01 -4.8494696617126465e-01</leafValues></_>
        <_>
          <internalNodes>
            0 -1 184 2.8294752701185644e-04</internalNodes>
          <leafValues>
            1.4648959040641785e-01 -6.6842275857925415e-01</leafValues></_>
        <_>
          <internalNodes>
            0 -1 191 -1.0771229863166809e-03</internalNodes>
          <leafValues>
            3.3663564920425415e-01 -2.9378464818000793e-01</leafValues></_>
        <_>
          <internalNodes>
            0 -1 16 1.6758093261159956e-04</internalNodes>
          <leafValues>
            1.8600189685821533e-01 -5.8470910787582397e-01</leafValues></_>
        <_>
          <internalNodes>
            0 -1 199 -8.9463945478200912e-03</internalNodes>
          <leafValues>
            6.8833267688751221e-01 -1.5386886894702911e-01</leafValues></_>
        <_>
          <internalNodes>
            0 -1 75 -1.1404594260966405e-05</internalNodes>
          <leafValues>
            2.6152527332305908e-01 -4.2611563205718994e-01</leafValues></_>
        <_>
          <internalNodes>
            0 -1 100 1.8221532227471471e-03</internalNodes>
          <leafValues>
            -4.2623862624168396e-01 2.4559921026229858e-01</leafValues></_>
        <_>
          <internalNodes>
            0 -1 61 -8.2405121065676212e-04</internalNodes>
          <leafValues>
            -7.1270877122879028e-01 1.4330148696899414e-01</leafValues></_></weakClassifiers></_></stages>
  <features>
    <_>
      <rects>
        <_>
          0 0 1 2 -1.</_>
        <_>
          0 1 1 1 2.</_></rects>
      <tilted>0</tilted></_>
    <_>
      <rects>
        <_>
          0 0 1 4 -1.</_>
        <_>
          0 2 1 2 2.</_></rects>
      <tilted>0</tilted></_>
    <_>
      <rects>
        <_>
          0 0 4 1 -1.</_>
        <_>
          2 0 2 1 2.</_></rects>
      <tilted>0</tilted></_>
    <_>
      <rects>
        <_>
          0 0 6 1 -1.</_>
        <_>
          2 0 2 1 3.</_></rects>
      <tilted>0</tilted></_>
    <_>
      <rects>
        <_>
          0 0 32 6 -1.</_>
        <_>
          0 3 32 3 2.</_></rects>
      <tilted>0</tilted></_>
    <_>
      <rects>
        <_>
          0 5 15 14 -1.</_>
        <_>
          5 5 5 14 3.</_></rects>
      <tilted>0</tilted></_>
    <_>
      <rects>
        <_>
          0 6 36 30 -1.</_>
        <_>
          12 6 12 30 3.</_></rects>
      <tilted>0</tilted></_>
    <_>
      <rects>
        <_>
          0 12 2 23 -1.</_>
        <_>
          1 12 1 23 2.</_></rects>
      <tilted>0</tilted></_>
    <_>
      <rects>
        <_>
          0 28 1 4 -1.</_>
        <_>
          0 30 1 2 2.</_></rects>
      <tilted>0</tilted></_>
    <_>
      <rects>
        <_>
          0 31 36 5 -1.</_>
        <_>
          12 31 12 5 3.</_></rects>
      <tilted>0</tilted></_>
    <_>
      <rects>
        <_>
          0 34 1 2 -1.</_>
        <_>
          0 35 1 1 2.</_></rects>
      <tilted>0</tilted></_>
    <_>
      <rects>
        <_>
          1 0 3 1 -1.</_>
        <_>
          2 0 1 1 3.</_></rects>
      <tilted>0</tilted></_>
    <_>
      <rects>
        <_>
          1 0 31 8 -1.</_>
        <_>
          1 4 31 4 2.</_></rects>
      <tilted>0</tilted></_>
    <_>
      <rects>
        <_>
          2 0 6 1 -1.</_>
        <_>
          4 0 2 1 3.</_></rects>
      <tilted>0</tilted></_>
    <_>
      <rects>
        <_>
          2 0 6 2 -1.</_>
        <_>
          4 0 2 2 3.</_></rects>
      <tilted>0</tilted></_>
    <_>
      <rects>
        <_>
          2 30 33 5 -1.</_>
        <_>
          13 30 11 5 3.</_></rects>
      <tilted>0</tilted></_>
    <_>
      <rects>
        <_>
          2 34 3 2 -1.</_>
        <_>
          2 35 3 1 2.</_></rects>
      <tilted>0</tilted></_>
    <_>
      <rects>
        <_>
          3 0 26 6 -1.</_>
        <_>
          3 3 26 3 2.</_></rects>
      <tilted>0</tilted></_>
    <_>
      <rects>
        <_>
          3 0 33 6 -1.</_>
        <_>
          3 3 33 3 2.</_></rects>
      <tilted>0</tilted></_>
    <_>
      <rects>
        <_>
          4 0 4 1 -1.</_>
        <_>
          6 0 2 1 2.</_></rects>
      <tilted>0</tilted></_>
    <_>
      <rects>
        <_>
          4 0 3 2 -1.</_>
        <_>
          4 1 3 1 2.</_></rects>
      <tilted>0</tilted></_>
    <_>
      <rects>
        <_>
          4 5 16 8 -1.</_>
        <_>
          4 5 8 4 2.</_>
        <_>
          12 9 8 4 2.</_></rects>
      <tilted>0</tilted></_>
    <_>
      <rects>
        <_>
          6 9 9 12 -1.</_>
        <_>
          9 9 3 12 3.</_></rects>
      <tilted>0</tilted></_>
    <_>
      <rects>
        <_>
          6 17 30 19 -1.</_>
        <_>
          16 17 10 19 3.</_></rects>
      <tilted>0</tilted></_>
    <_>
      <rects>
        <_>
          6 34 1 2 -1.</_>
        <_>
          6 35 1 1 2.</_></rects>
      <tilted>0</tilted></_>
    <_>
      <rects>
        <_>
          7 0 29 9 -1.</_>
        <_>
          7 3 29 3 3.</_></rects>
      <tilted>0</tilted></_>
    <_>
      <rects>
        <_>
          7 16 16 2 -1.</_>
        <_>
          7 17 16 1 2.</_></rects>
      <tilted>0</tilted></_>
    <_>
      <rects>
        <_>
          8 0 2 2 -1.</_>
        <_>
          8 1 2 1 2.</_></rects>
      <tilted>0</tilted></_>
    <_>
      <rects>
        <_>
          8 9 6 21 -1.</_>
        <_>
          10 9 2 21 3.</_></rects>
      <tilted>0</tilted></_>
    <_>
      <rects>
        <_>
          8 9 6 23 -1.</_>
        <_>
          10 9 2 23 3.</_></rects>
      <tilted>0</tilted></_>
    <_>
      <rects>
        <_>
          8 10 6 4 -1.</_>
        <_>
          10 10 2 4 3.</_></rects>
      <tilted>0</tilted></_>
    <_>
      <rects>
        <_>
          8 10 6 5 -1.</_>
        <_>
          10 10 2 5 3.</_></rects>
      <tilted>0</tilted></_>
    <_>
      <rects>
        <_>
          8 10 6 16 -1.</_>
        <_>
          10 10 2 16 3.</_></rects>
      <tilted>0</tilted></_>
    <_>
      <rects>
        <_>
          8 11 6 2 -1.</_>
        <_>
          10 11 2 2 3.</_></rects>
      <tilted>0</tilted></_>
    <_>
      <rects>
        <_>
          9 0 6 2 -1.</_>
        <_>
          9 1 6 1 2.</_></rects>
      <tilted>0</tilted></_>
    <_>
      <rects>
        <_>
          9 8 8 27 -1.</_>
        <_>
          13 8 4 27 2.</_></rects>
      <tilted>0</tilted></_>
    <_>
      <rects>
        <_>
          9 9 18 6 -1.</_>
        <_>
          15 9 6 6 3.</_></rects>
      <tilted>0</tilted></_>
    <_>
      <rects>
        <_>
          9 10 6 21 -1.</_>
        <_>
          12 10 3 21 2.</_></rects>
      <tilted>0</tilted></_>
    <_>
      <rects>
        <_>
          9 10 18 5 -1.</_>
        <_>
          15 10 6 5 3.</_></rects>
      <tilted>0</tilted></_>
    <_>
      <rects>
        <_>
          9 11 3 8 -1.</_>
        <_>
          10 11 1 8 3.</_></rects>
      <tilted>0</tilted></_>
    <_>
      <rects>
        <_>
          9 11 3 9 -1.</_>
        <_>
          10 11 1 9 3.</_></rects>
      <tilted>0</tilted></_>
    <_>
      <rects>
        <_>
          9 14 16 8 -1.</_>
        <_>
          9 14 8 4 2.</_>
        <_>
          17 18 8 4 2.</_></rects>
      <tilted>0</tilted></_>
    <_>
      <rects>
        <_>
          9 15 3 3 -1.</_>
        <_>
          10 15 1 3 3.</_></rects>
      <tilted>0</tilted></_>
    <_>
      <rects>
        <_>
          9 15 17 9 -1.</_>
        <_>
          9 18 17 3 3.</_></rects>
      <tilted>0</tilted></_>
    <_>
      <rects>
        <_>
          10 0 23 4 -1.</_>
        <_>
          10 2 23 2 2.</_></rects>
      <tilted>0</tilted></_>
    <_>
      <rects>
        <_>
          10 5 4 10 -1.</_>
        <_>
          10 5 2 5 2.</_>
        <_>
          12 10 2 5 2.</_></rects>
      <tilted>0</tilted></_>
    <_>
      <rects>
        <_>
          10 10 4 10 -1.</_>
        <_>
          12 10 2 10 2.</_></rects>
      <tilted>0</tilted></_>
    <_>
      <rects>
        <_>
          10 13 6 4 -1.</_>
        <_>
          10 13 3 2 2.</_>
        <_>
          13 15 3 2 2.</_></rects>
      <tilted>0</tilted></_>
    <_>
      <rects>
        <_>
          10 28 21 6 -1.</_>
        <_>
          17 28 7 6 3.</_></rects>
      <tilted>0</tilted></_>
    <_>
      <rects>
        <_>
          11 9 2 9 -1.</_>
        <_>
          12 9 1 9 2.</_></rects>
      <tilted>0</tilted></_>
    <_>
      <rects>
        <_>
          11 9 6 8 -1.</_>
        <_>
          11 9 3 4 2.</_>
        <_>
          14 13 3 4 2.</_></rects>
      <tilted>0</tilted></_>
    <_>
      <rects>
        <_>
          11 9 12 8 -1.</_>
        <_>
          11 9 6 4 2.</_>
        <_>
          17 13 6 4 2.</_></rects>
      <tilted>0</tilted></_>
    <_>
      <rects>
        <_>
          11 13 7 6 -1.</_>
        <_>
          11 15 7 2 3.</_></rects>
      <tilted>0</tilted></_>
    <_>
      <rects>
        <_>
          11 14 12 12 -1.</_>
        <_>
          11 14 6 6 2.</_>
        <_>
          17 20 6 6 2.</_></rects>
      <tilted>0</tilted></_>
    <_>
      <rects>
        <_>
          11 15 4 6 -1.</_>
        <_>
          11 15 2 3 2.</_>
        <_>
          13 18 2 3 2.</_></rects>
      <tilted>0</tilted></_>
    <_>
      <rects>
        <_>
          11 16 6 6 -1.</_>
        <_>
          11 18 6 2 3.</_></rects>
      <tilted>0</tilted></_>
    <_>
      <rects>
        <_>
          11 18 2 1 -1.</_>
        <_>
          12 18 1 1 2.</_></rects>
      <tilted>0</tilted></_>
    <_>
      <rects>
        <_>
          12 3 9 9 -1.</_>
        <_>
          12 6 9 3 3.</_></rects>
      <tilted>0</tilted></_>
    <_>
      <rects>
        <_>
          12 3 14 9 -1.</_>
        <_>
          12 6 14 3 3.</_></rects>
      <tilted>0</tilted></_>
    <_>
      <rects>
        <_>
          12 8 11 9 -1.</_>
        <_>
          12 11 11 3 3.</_></rects>
      <tilted>0</tilted></_>
    <_>
      <rects>
        <_>
          12 9 4 10 -1.</_>
        <_>
          12 9 2 5 2.</_>
        <_>
          14 14 2 5 2.</_></rects>
      <tilted>0</tilted></_>
    <_>
      <rects>
        <_>
          12 9 5 3 -1.</_>
        <_>
          12 10 5 1 3.</_></rects>
      <tilted>0</tilted></_>
    <_>
      <rects>
        <_>
          12 9 9 9 -1.</_>
        <_>
          12 12 9 3 3.</_></rects>
      <tilted>0</tilted></_>
    <_>
      <rects>
        <_>
          12 12 9 12 -1.</_>
        <_>
          12 18 9 6 2.</_></rects>
      <tilted>0</tilted></_>
    <_>
      <rects>
        <_>
          12 13 11 6 -1.</_>
        <_>
          12 15 11 2 3.</_></rects>
      <tilted>0</tilted></_>
    <_>
      <rects>
        <_>
          12 14 4 12 -1.</_>
        <_>
          12 18 4 4 3.</_></rects>
      <tilted>0</tilted></_>
    <_>
      <rects>
        <_>
          12 14 14 10 -1.</_>
        <_>
          12 14 7 5 2.</_>
        <_>
          19 19 7 5 2.</_></rects>
      <tilted>0</tilted></_>
    <_>
      <rects>
        <_>
          12 15 2 6 -1.</_>
        <_>
          12 15 1 3 2.</_>
        <_>
          13 18 1 3 2.</_></rects>
      <tilted>0</tilted></_>
    <_>
      <rects>
        <_>
          12 15 12 8 -1.</_>
        <_>
          12 15 6 4 2.</_>
        <_>
          18 19 6 4 2.</_></rects>
      <tilted>0</tilted></_>
    <_>
      <rects>
        <_>
          12 15 14 6 -1.</_>
        <_>
          12 15 7 3 2.</_>
        <_>
          19 18 7 3 2.</_></rects>
      <tilted>0</tilted></_>
    <_>
      <rects>
        <_>
          12 15 14 4 -1.</_>
        <_>
          12 17 14 2 2.</_></rects>
      <tilted>0</tilted></_>
    <_>
      <rects>
        <_>
          12 16 10 10 -1.</_>
        <_>
          12 21 10 5 2.</_></rects>
      <tilted>0</tilted></_>
    <_>
      <rects>
        <_>
          12 18 3 4 -1.</_>
        <_>
          12 20 3 2 2.</_></rects>
      <tilted>0</tilted></_>
    <_>
      <rects>
        <_>
          12 18 10 6 -1.</_>
        <_>
          12 21 10 3 2.</_></rects>
      <tilted>0</tilted></_>
    <_>
      <rects>
        <_>
          12 19 12 6 -1.</_>
        <_>
          12 19 6 3 2.</_>
        <_>
          18 22 6 3 2.</_></rects>
      <tilted>0</tilted></_>
    <_>
      <rects>
        <_>
          12 22 2 2 -1.</_>
        <_>
          12 23 2 1 2.</_></rects>
      <tilted>0</tilted></_>
    <_>
      <rects>
        <_>
          12 22 12 4 -1.</_>
        <_>
          12 22 6 2 2.</_>
        <_>
          18 24 6 2 2.</_></rects>
      <tilted>0</tilted></_>
    <_>
      <rects>
        <_>
          12 24 2 1 -1.</_>
        <_>
          13 24 1 1 2.</_></rects>
      <tilted>0</tilted></_>
    <_>
      <rects>
        <_>
          13 0 3 1 -1.</_>
        <_>
          14 0 1 1 3.</_></rects>
      <tilted>0</tilted></_>
    <_>
      <rects>
        <_>
          13 6 10 12 -1.</_>
        <_>
          13 10 10 4 3.</_></rects>
      <tilted>0</tilted></_>
    <_>
      <rects>
        <_>
          13 7 8 4 -1.</_>
        <_>
          13 9 8 2 2.</_></rects>
      <tilted>0</tilted></_>
    <_>
      <rects>
        <_>
          13 7 10 4 -1.</_>
        <_>
          13 9 10 2 2.</_></rects>
      <tilted>0</tilted></_>
    <_>
      <rects>
        <_>
          13 10 2 1 -1.</_>
        <_>
          14 10 1 1 2.</_></rects>
      <tilted>0</tilted></_>
    <_>
      <rects>
        <_>
          13 11 12 2 -1.</_>
        <_>
          13 11 6 1 2.</_>
        <_>
          19 12 6 1 2.</_></rects>
      <tilted>0</tilted></_>
    <_>
      <rects>
        <_>
          13 13 10 6 -1.</_>
        <_>
          13 15 10 2 3.</_></rects>
      <tilted>0</tilted></_>
    <_>
      <rects>
        <_>
          13 14 9 8 -1.</_>
        <_>
          13 18 9 4 2.</_></rects>
      <tilted>0</tilted></_>
    <_>
      <rects>
        <_>
          13 15 6 6 -1.</_>
        <_>
          13 15 3 3 2.</_>
        <_>
          16 18 3 3 2.</_></rects>
      <tilted>0</tilted></_>
    <_>
      <rects>
        <_>
          13 16 9 2 -1.</_>
        <_>
          13 17 9 1 2.</_></rects>
      <tilted>0</tilted></_>
    <_>
      <rects>
        <_>
          13 20 1 6 -1.</_>
        <_>
          13 22 1 2 3.</_></rects>
      <tilted>0</tilted></_>
    <_>
      <rects>
        <_>
          13 23 1 2 -1.</_>
        <_>
          13 24 1 1 2.</_></rects>
      <tilted>0</tilted></_>
    <_>
      <rects>
        <_>
          13 23 4 2 -1.</_>
        <_>
          13 23 2 1 2.</_>
        <_>
          15 24 2 1 2.</_></rects>
      <tilted>0</tilted></_>
    <_>
      <rects>
        <_>
          13 23 6 4 -1.</_>
        <_>
          13 23 3 2 2.</_>
        <_>
          16 25 3 2 2.</_></rects>
      <tilted>0</tilted></_>
    <_>
      <rects>
        <_>
          13 24 2 2 -1.</_>
        <_>
          13 25 2 1 2.</_></rects>
      <tilted>0</tilted></_>
    <_>
      <rects>
        <_>
          13 24 2 6 -1.</_>
        <_>
          13 26 2 2 3.</_></rects>
      <tilted>0</tilted></_>
    <_>
      <rects>
        <_>
          13 26 6 4 -1.</_>
        <_>
          13 26 3 2 2.</_>
        <_>
          16 28 3 2 2.</_></rects>
      <tilted>0</tilted></_>
    <_>
      <rects>
        <_>
          13 27 8 2 -1.</_>
        <_>
          13 27 4 1 2.</_>
        <_>
          17 28 4 1 2.</_></rects>
      <tilted>0</tilted></_>
    <_>
      <rects>
        <_>
          14 6 9 6 -1.</_>
        <_>
          14 9 9 3 2.</_></rects>
      <tilted>0</tilted></_>
    <_>
      <rects>
        <_>
          14 10 5 8 -1.</_>
        <_>
          14 14 5 4 2.</_></rects>
      <tilted>0</tilted></_>
    <_>
      <rects>
        <_>
          14 14 1 12 -1.</_>
        <_>
          14 20 1 6 2.</_></rects>
      <tilted>0</tilted></_>
    <_>
      <rects>
        <_>
          14 15 1 9 -1.</_>
        <_>
          14 18 1 3 3.</_></rects>
      <tilted>0</tilted></_>
    <_>
      <rects>
        <_>
          14 16 9 2 -1.</_>
        <_>
          14 17 9 1 2.</_></rects>
      <tilted>0</tilted></_>
    <_>
      <rects>
        <_>
          14 16 14 2 -1.</_>
        <_>
          14 17 14 1 2.</_></rects>
      <tilted>0</tilted></_>
    <_>
      <rects>
        <_>
          14 25 1 2 -1.</_>
        <_>
          14 26 1 1 2.</_></rects>
      <tilted>0</tilted></_>
    <_>
      <rects>
        <_>
          14 25 8 6 -1.</_>
        <_>
          14 27 8 2 3.</_></rects>
      <tilted>0</tilted></_>
    <_>
      <rects>
        <_>
          15 5 16 8 -1.</_>
        <_>
          15 5 8 4 2.</_>
        <_>
          23 9 8 4 2.</_></rects>
      <tilted>0</tilted></_>
    <_>
      <rects>
        <_>
          15 8 6 9 -1.</_>
        <_>
          15 11 6 3 3.</_></rects>
      <tilted>0</tilted></_>
    <_>
      <rects>
        <_>
          15 11 6 6 -1.</_>
        <_>
          15 14 6 3 2.</_></rects>
      <tilted>0</tilted></_>
    <_>
      <rects>
        <_>
          15 18 5 9 -1.</_>
        <_>
          15 21 5 3 3.</_></rects>
      <tilted>0</tilted></_>
    <_>
      <rects>
        <_>
          15 19 5 3 -1.</_>
        <_>
          15 20 5 1 3.</_></rects>
      <tilted>0</tilted></_>
    <_>
      <rects>
        <_>
          15 23 4 6 -1.</_>
        <_>
          15 25 4 2 3.</_></rects>
      <tilted>0</tilted></_>
    <_>
      <rects>
        <_>
          15 25 8 6 -1.</_>
        <_>
          15 27 8 2 3.</_></rects>
      <tilted>0</tilted></_>
    <_>
      <rects>
        <_>
          15 26 2 2 -1.</_>
        <_>
          15 27 2 1 2.</_></rects>
      <tilted>0</tilted></_>
    <_>
      <rects>
        <_>
          15 27 4 3 -1.</_>
        <_>
          15 28 4 1 3.</_></rects>
      <tilted>0</tilted></_>
    <_>
      <rects>
        <_>
          15 28 8 2 -1.</_>
        <_>
          15 29 8 1 2.</_></rects>
      <tilted>0</tilted></_>
    <_>
      <rects>
        <_>
          16 12 2 1 -1.</_>
        <_>
          17 12 1 1 2.</_></rects>
      <tilted>0</tilted></_>
    <_>
      <rects>
        <_>
          16 12 4 1 -1.</_>
        <_>
          18 12 2 1 2.</_></rects>
      <tilted>0</tilted></_>
    <_>
      <rects>
        <_>
          16 14 2 3 -1.</_>
        <_>
          17 14 1 3 2.</_></rects>
      <tilted>0</tilted></_>
    <_>
      <rects>
        <_>
          16 14 3 10 -1.</_>
        <_>
          16 19 3 5 2.</_></rects>
      <tilted>0</tilted></_>
    <_>
      <rects>
        <_>
          16 14 8 10 -1.</_>
        <_>
          16 14 4 5 2.</_>
        <_>
          20 19 4 5 2.</_></rects>
      <tilted>0</tilted></_>
    <_>
      <rects>
        <_>
          16 14 10 8 -1.</_>
        <_>
          16 18 10 4 2.</_></rects>
      <tilted>0</tilted></_>
    <_>
      <rects>
        <_>
          16 19 6 3 -1.</_>
        <_>
          16 20 6 1 3.</_></rects>
      <tilted>0</tilted></_>
    <_>
      <rects>
        <_>
          16 23 4 6 -1.</_>
        <_>
          16 25 4 2 3.</_></rects>
      <tilted>0</tilted></_>
    <_>
      <rects>
        <_>
          16 23 8 4 -1.</_>
        <_>
          16 23 4 2 2.</_>
        <_>
          20 25 4 2 2.</_></rects>
      <tilted>0</tilted></_>
    <_>
      <rects>
        <_>
          16 25 4 3 -1.</_>
        <_>
          16 26 4 1 3.</_></rects>
      <tilted>0</tilted></_>
    <_>
      <rects>
        <_>
          16 26 1 2 -1.</_>
        <_>
          16 27 1 1 2.</_></rects>
      <tilted>0</tilted></_>
    <_>
      <rects>
        <_>
          16 27 8 2 -1.</_>
        <_>
          16 27 4 1 2.</_>
        <_>
          20 28 4 1 2.</_></rects>
      <tilted>0</tilted></_>
    <_>
      <rects>
        <_>
          17 0 8 6 -1.</_>
        <_>
          17 3 8 3 2.</_></rects>
      <tilted>0</tilted></_>
    <_>
      <rects>
        <_>
          17 6 14 8 -1.</_>
        <_>
          17 6 7 4 2.</_>
        <_>
          24 10 7 4 2.</_></rects>
      <tilted>0</tilted></_>
    <_>
      <rects>
        <_>
          17 12 2 1 -1.</_>
        <_>
          18 12 1 1 2.</_></rects>
      <tilted>0</tilted></_>
    <_>
      <rects>
        <_>
          17 12 3 1 -1.</_>
        <_>
          18 12 1 1 3.</_></rects>
      <tilted>0</tilted></_>
    <_>
      <rects>
        <_>
          17 15 3 14 -1.</_>
        <_>
          17 22 3 7 2.</_></rects>
      <tilted>0</tilted></_>
    <_>
      <rects>
        <_>
          17 23 4 6 -1.</_>
        <_>
          17 25 4 2 3.</_></rects>
      <tilted>0</tilted></_>
    <_>
      <rects>
        <_>
          17 25 5 6 -1.</_>
        <_>
          17 27 5 2 3.</_></rects>
      <tilted>0</tilted></_>
    <_>
      <rects>
        <_>
          17 26 8 4 -1.</_>
        <_>
          17 26 4 2 2.</_>
        <_>
          21 28 4 2 2.</_></rects>
      <tilted>0</tilted></_>
    <_>
      <rects>
        <_>
          18 7 3 7 -1.</_>
        <_>
          19 7 1 7 3.</_></rects>
      <tilted>0</tilted></_>
    <_>
      <rects>
        <_>
          18 8 1 2 -1.</_>
        <_>
          18 9 1 1 2.</_></rects>
      <tilted>0</tilted></_>
    <_>
      <rects>
        <_>
          18 12 2 2 -1.</_>
        <_>
          19 12 1 2 2.</_></rects>
      <tilted>0</tilted></_>
    <_>
      <rects>
        <_>
          18 12 1 18 -1.</_>
        <_>
          18 21 1 9 2.</_></rects>
      <tilted>0</tilted></_>
    <_>
      <rects>
        <_>
          18 23 2 6 -1.</_>
        <_>
          18 25 2 2 3.</_></rects>
      <tilted>0</tilted></_>
    <_>
      <rects>
        <_>
          18 25 3 3 -1.</_>
        <_>
          18 26 3 1 3.</_></rects>
      <tilted>0</tilted></_>
    <_>
      <rects>
        <_>
          19 8 3 9 -1.</_>
        <_>
          19 11 3 3 3.</_></rects>
      <tilted>0</tilted></_>
    <_>
      <rects>
        <_>
          19 9 6 10 -1.</_>
        <_>
          19 9 3 5 2.</_>
        <_>
          22 14 3 5 2.</_></rects>
      <tilted>0</tilted></_>
    <_>
      <rects>
        <_>
          19 10 6 6 -1.</_>
        <_>
          19 10 3 3 2.</_>
        <_>
          22 13 3 3 2.</_></rects>
      <tilted>0</tilted></_>
    <_>
      <rects>
        <_>
          19 13 4 4 -1.</_>
        <_>
          19 15 4 2 2.</_></rects>
      <tilted>0</tilted></_>
    <_>
      <rects>
        <_>
          19 13 6 6 -1.</_>
        <_>
          19 15 6 2 3.</_></rects>
      <tilted>0</tilted></_>
    <_>
      <rects>
        <_>
          19 14 6 12 -1.</_>
        <_>
          19 18 6 4 3.</_></rects>
      <tilted>0</tilted></_>
    <_>
      <rects>
        <_>
          19 15 4 9 -1.</_>
        <_>
          19 18 4 3 3.</_></rects>
      <tilted>0</tilted></_>
    <_>
      <rects>
        <_>
          19 21 1 6 -1.</_>
        <_>
          19 24 1 3 2.</_></rects>
      <tilted>0</tilted></_>
    <_>
      <rects>
        <_>
          19 26 6 2 -1.</_>
        <_>
          19 26 3 1 2.</_>
        <_>
          22 27 3 1 2.</_></rects>
      <tilted>0</tilted></_>
    <_>
      <rects>
        <_>
          20 4 6 10 -1.</_>
        <_>
          20 4 3 5 2.</_>
        <_>
          23 9 3 5 2.</_></rects>
      <tilted>0</tilted></_>
    <_>
      <rects>
        <_>
          20 9 6 6 -1.</_>
        <_>
          23 9 3 6 2.</_></rects>
      <tilted>0</tilted></_>
    <_>
      <rects>
        <_>
          20 19 5 4 -1.</_>
        <_>
          20 21 5 2 2.</_></rects>
      <tilted>0</tilted></_>
    <_>
      <rects>
        <_>
          20 20 1 6 -1.</_>
        <_>
          20 22 1 2 3.</_></rects>
      <tilted>0</tilted></_>
    <_>
      <rects>
        <_>
          20 22 2 6 -1.</_>
        <_>
          20 24 2 2 3.</_></rects>
      <tilted>0</tilted></_>
    <_>
      <rects>
        <_>
          20 22 5 4 -1.</_>
        <_>
          20 24 5 2 2.</_></rects>
      <tilted>0</tilted></_>
    <_>
      <rects>
        <_>
          20 25 1 6 -1.</_>
        <_>
          20 27 1 2 3.</_></rects>
      <tilted>0</tilted></_>
    <_>
      <rects>
        <_>
          20 26 2 1 -1.</_>
        <_>
          21 26 1 1 2.</_></rects>
      <tilted>0</tilted></_>
    <_>
      <rects>
        <_>
          20 26 4 2 -1.</_>
        <_>
          20 26 2 1 2.</_>
        <_>
          22 27 2 1 2.</_></rects>
      <tilted>0</tilted></_>
    <_>
      <rects>
        <_>
          21 6 10 15 -1.</_>
        <_>
          26 6 5 15 2.</_></rects>
      <tilted>0</tilted></_>
    <_>
      <rects>
        <_>
          21 8 9 17 -1.</_>
        <_>
          24 8 3 17 3.</_></rects>
      <tilted>0</tilted></_>
    <_>
      <rects>
        <_>
          21 9 6 2 -1.</_>
        <_>
          23 9 2 2 3.</_></rects>
      <tilted>0</tilted></_>
    <_>
      <rects>
        <_>
          21 9 9 6 -1.</_>
        <_>
          24 9 3 6 3.</_></rects>
      <tilted>0</tilted></_>
    <_>
      <rects>
        <_>
          21 15 2 4 -1.</_>
        <_>
          21 17 2 2 2.</_></rects>
      <tilted>0</tilted></_>
    <_>
      <rects>
        <_>
          21 17 1 2 -1.</_>
        <_>
          21 18 1 1 2.</_></rects>
      <tilted>0</tilted></_>
    <_>
      <rects>
        <_>
          21 18 5 4 -1.</_>
        <_>
          21 20 5 2 2.</_></rects>
      <tilted>0</tilted></_>
    <_>
      <rects>
        <_>
          21 19 1 4 -1.</_>
        <_>
          21 21 1 2 2.</_></rects>
      <tilted>0</tilted></_>
    <_>
      <rects>
        <_>
          22 9 6 6 -1.</_>
        <_>
          24 9 2 6 3.</_></rects>
      <tilted>0</tilted></_>
    <_>
      <rects>
        <_>
          22 9 4 16 -1.</_>
        <_>
          24 9 2 16 2.</_></rects>
      <tilted>0</tilted></_>
    <_>
      <rects>
        <_>
          22 10 2 2 -1.</_>
        <_>
          23 10 1 2 2.</_></rects>
      <tilted>0</tilted></_>
    <_>
      <rects>
        <_>
          22 10 6 3 -1.</_>
        <_>
          24 10 2 3 3.</_></rects>
      <tilted>0</tilted></_>
    <_>
      <rects>
        <_>
          22 10 4 12 -1.</_>
        <_>
          24 10 2 12 2.</_></rects>
      <tilted>0</tilted></_>
    <_>
      <rects>
        <_>
          22 10 6 16 -1.</_>
        <_>
          24 10 2 16 3.</_></rects>
      <tilted>0</tilted></_>
    <_>
      <rects>
        <_>
          22 10 4 24 -1.</_>
        <_>
          24 10 2 24 2.</_></rects>
      <tilted>0</tilted></_>
    <_>
      <rects>
        <_>
          22 11 3 11 -1.</_>
        <_>
          23 11 1 11 3.</_></rects>
      <tilted>0</tilted></_>
    <_>
      <rects>
        <_>
          22 11 4 13 -1.</_>
        <_>
          24 11 2 13 2.</_></rects>
      <tilted>0</tilted></_>
    <_>
      <rects>
        <_>
          22 11 4 24 -1.</_>
        <_>
          24 11 2 24 2.</_></rects>
      <tilted>0</tilted></_>
    <_>
      <rects>
        <_>
          22 15 2 6 -1.</_>
        <_>
          22 15 1 3 2.</_>
        <_>
          23 18 1 3 2.</_></rects>
      <tilted>0</tilted></_>
    <_>
      <rects>
        <_>
          22 18 2 8 -1.</_>
        <_>
          22 22 2 4 2.</_></rects>
      <tilted>0</tilted></_>
    <_>
      <rects>
        <_>
          22 19 2 3 -1.</_>
        <_>
          22 20 2 1 3.</_></rects>
      <tilted>0</tilted></_>
    <_>
      <rects>
        <_>
          22 20 1 4 -1.</_>
        <_>
          22 22 1 2 2.</_></rects>
      <tilted>0</tilted></_>
    <_>
      <rects>
        <_>
          22 20 3 4 -1.</_>
        <_>
          22 22 3 2 2.</_></rects>
      <tilted>0</tilted></_>
    <_>
      <rects>
        <_>
          22 24 1 2 -1.</_>
        <_>
          22 25 1 1 2.</_></rects>
      <tilted>0</tilted></_>
    <_>
      <rects>
        <_>
          23 13 2 1 -1.</_>
        <_>
          24 13 1 1 2.</_></rects>
      <tilted>0</tilted></_>
    <_>
      <rects>
        <_>
          23 18 2 2 -1.</_>
        <_>
          24 18 1 2 2.</_></rects>
      <tilted>0</tilted></_>
    <_>
      <rects>
        <_>
          23 18 2 2 -1.</_>
        <_>
          23 19 2 1 2.</_></rects>
      <tilted>0</tilted></_>
    <_>
      <rects>
        <_>
          23 22 2 2 -1.</_>
        <_>
          23 23 2 1 2.</_></rects>
      <tilted>0</tilted></_>
    <_>
      <rects>
        <_>
          23 23 1 2 -1.</_>
        <_>
          23 24 1 1 2.</_></rects>
      <tilted>0</tilted></_>
    <_>
      <rects>
        <_>
          24 4 2 16 -1.</_>
        <_>
          24 4 1 8 2.</_>
        <_>
          25 12 1 8 2.</_></rects>
      <tilted>0</tilted></_>
    <_>
      <rects>
        <_>
          24 7 2 10 -1.</_>
        <_>
          24 7 1 5 2.</_>
        <_>
          25 12 1 5 2.</_></rects>
      <tilted>0</tilted></_>
    <_>
      <rects>
        <_>
          24 10 3 8 -1.</_>
        <_>
          25 10 1 8 3.</_></rects>
      <tilted>0</tilted></_>
    <_>
      <rects>
        <_>
          24 13 3 10 -1.</_>
        <_>
          25 13 1 10 3.</_></rects>
      <tilted>0</tilted></_>
    <_>
      <rects>
        <_>
          24 14 3 4 -1.</_>
        <_>
          25 14 1 4 3.</_></rects>
      <tilted>0</tilted></_>
    <_>
      <rects>
        <_>
          26 0 10 3 -1.</_>
        <_>
          31 0 5 3 2.</_></rects>
      <tilted>0</tilted></_>
    <_>
      <rects>
        <_>
          30 0 6 1 -1.</_>
        <_>
          33 0 3 1 2.</_></rects>
      <tilted>0</tilted></_>
    <_>
      <rects>
        <_>
          31 1 1 2 -1.</_>
        <_>
          31 2 1 1 2.</_></rects>
      <tilted>0</tilted></_>
    <_>
      <rects>
        <_>
          32 0 4 31 -1.</_>
        <_>
          34 0 2 31 2.</_></rects>
      <tilted>0</tilted></_>
    <_>
      <rects>
        <_>
          32 0 4 36 -1.</_>
        <_>
          34 0 2 36 2.</_></rects>
      <tilted>0</tilted></_>
    <_>
      <rects>
        <_>
          34 0 2 1 -1.</_>
        <_>
          35 0 1 1 2.</_></rects>
      <tilted>0</tilted></_>
    <_>
      <rects>
        <_>
          34 0 2 30 -1.</_>
        <_>
          35 0 1 30 2.</_></rects>
      <tilted>0</tilted></_>
    <_>
      <rects>
        <_>
          34 0 2 36 -1.</_>
        <_>
          35 0 1 36 2.</_></rects>
      <tilted>0</tilted></_>
    <_>
      <rects>
        <_>
          34 0 2 2 -1.</_>
        <_>
          34 1 2 1 2.</_></rects>
      <tilted>0</tilted></_>
    <_>
      <rects>
        <_>
          34 32 1 4 -1.</_>
        <_>
          34 34 1 2 2.</_></rects>
      <tilted>0</tilted></_>
    <_>
      <rects>
        <_>
          35 1 1 2 -1.</_>
        <_>
          35 2 1 1 2.</_></rects>
      <tilted>0</tilted></_></features></cascade>
</opencv_storage>
